{"inputs": 4, "outputs": 3, "learning_rate": 0.1, "model_compiled": true, "layers": [{"neurons": 8, "inputs": 4, "weights": [[0.07269534052228566, 1.1394219218427062, 0.3089885097472363, 0.1485204918487802], [-0.1782570594144169, -0.8371200194828594, 1.5878319142088113, 0.42767691362725957], [0.2660412472749081, 0.5696636241480678, 0.5592986227580139, 0.6564722862432036], [1.0182630552279834, 1.1481106629449873, -1.5682480691368086, -2.035173442016699], [-0.3671338400543749, 0.7045300639588984, 0.7470810160506332, -0.2999569775696305], [-0.3580128511006306, -0.547424030274085, 0.9171693697697069, 0.6437085699159936], [-0.4509681984306861, -1.0407994453426512, 0.7874051401383458, 1.183140809884761], [0.5147497405267464, 1.332772965868897, -1.3142265161627182, -1.3506940909899894]], "biases": [[-0.854107490756352], [-1.0851809136430977], [1.018660043013488], [0.91805789553148], [1.1105959114060986], [-1.020642347307132], [1.99432312335956], [0.9211037156711165]], "activation_function": "sigmoid", "loss_function": "mse"}, {"neurons": 8, "inputs": 8, "weights": [[0.9741904327454267, 0.960793049092663, -0.4688505859431468, -0.7774015152518319, 1.2181993264614979, -0.10186340709774955, -0.21476304118857814, -0.6338854960315693], [-0.0012340335828328179, 0.1460309571621944, -0.04723524902951066, -1.3735621510267195, 0.27534735118295056, 0.043067624346280045, 1.208203278575249, -1.894350671000374], [-0.23889042748180278, 1.0176172452038652, 0.9972948951931232, -0.8577858816405131, -0.26894358875472696, 0.48465931407982965, 0.6728010686548676, -1.0210759546949828], [1.8982157360897933, 0.7196239656462501, 0.5495908988949204, 0.4796768893616218, 0.0201306164868255, 1.2190601932576808, -0.6705015425371132, -1.0149681106125685], [0.04034400197563948, -0.9520219375362914, 0.26017924398470166, 2.6370867900387895, 0.10189316973556273, -1.2334469007053692, -0.2687536037125459, 1.9591908635144488], [0.3637443728247098, -1.2916296954120605, 0.12668469271653462, 1.4926964003347878, 0.3369700326675436, -0.41836695483907166, -1.5068115842122325, 0.6078088117816501], [0.188341243918845, -1.1730179684748916, -0.286535827977223, -1.0531285489288986, 0.7382739837114196, 0.6717836106862897, -0.07874279745722063, 0.10146566020741946], [1.4386512198670194, 1.3819040813202805, -0.00899772682264444, -1.2181024230377473, 1.2338812593969026, 0.6908623889062213, 1.2421108495452675, -1.732245765221109]], "biases": [[2.5151510172242078], [0.009482174019212048], [-0.6123849430880649], [-0.6959313837978316], [-0.12510049106661486], [-1.3834176100483253], [0.23547810873751165], [-1.6454760764043703]], "activation_function": "sigmoid", "loss_function": "mse"}, {"neurons": 3, "inputs": 8, "weights": [[1.2750000837197764, -0.13036297052992019, -0.24206582812444496, 0.9638573781894755, 3.235168295914324, 2.4612799050814966, 1.11656088250201, -1.3130289025243413], [1.4846353370472118, -0.05864786570497707, 0.83181996019198, 1.407808767622136, 2.351099024766594, -1.3451791681845908, -1.535589504241521, 2.16071187027552], [-0.1492732705855309, 2.354248777471938, 2.559139510838291, 1.9223267040424161, -2.1459011884126733, -0.5070121273364182, 0.8826162415596334, 3.1819670502679798]], "biases": [[0.8708242318867627], [2.0625540223585364], [0.8376815607209537]], "activation_function": "softmax", "loss_function": "mse"}], "accuracy": 86.10082966246662, "loss": 0.01931869360717675, "epochs": 50}