{"inputs": 4, "outputs": 3, "learning_rate": 0.1, "model_compiled": true, "layers": [{"neurons": 8, "inputs": 4, "weights": [[-1.0700415467408173, -0.47497148586320775, 0.5566798557421224, -0.7777828189500775], [-0.7696915887624413, -0.6140562071249159, 1.3346027317060487, 1.2731648745849191], [1.4078816365047142, 1.3682120544676533, -2.11854904186138, -1.6945022754603607], [1.1154631598441513, -0.5205210251936551, -1.2803910349270866, -0.13187163716764894], [0.22840784900252517, 0.510609105902735, 0.24978442116741506, 0.29387233657303347], [0.7137207517949101, -0.16867843340894764, 0.36859586125326244, -0.01704262145978384], [0.5629132916234478, 0.6236059804916765, -1.6602407127112768, -0.4306899397690986], [-0.5716383479690711, -0.06762030912963893, 0.24572896922479084, 0.20923602317216378]], "biases": [[1.543650228794593], [-0.32734036308443387], [-0.5098634899319852], [0.2837008561686969], [0.6030174507344979], [-0.4528485459814387], [0.5331247507626853], [-1.4909211603720176]], "activation_function": "sigmoid", "loss_function": "ce"}, {"neurons": 8, "inputs": 8, "weights": [[-0.3103020614721703, 0.2359898850158288, -0.19579465036701318, -0.13931391973107884, 0.5814076015225622, -0.20118122119185297, 0.6819492156091436, 0.10885428817433039], [0.6722899203006012, -0.6828462168876362, 1.6937475950838112, -0.08615093263777607, 0.5297781233937315, -0.00873924638356966, 0.4728922558298986, 0.22098978114308693], [-0.03392810025854064, 0.9474535480633547, -0.4421107150805129, 0.2379506493109156, -0.8509534004051296, -0.14686482127630396, 0.33407233898310434, -0.5573498132515291], [0.7990958823760101, 3.0681050521315956, -1.1463811320174448, 0.2093063865910252, 0.505295499994145, 1.3432161568148802, -1.8416773649380784, -0.5181459733152441], [0.16212913503833906, -1.324808597586848, 1.776882405757641, 1.5100673637863913, 0.09091979151925947, 0.5976227891637328, 0.581833243802584, -0.2796027117628177], [-0.30591837664341687, 1.3626129148581465, -1.2520457096326938, -0.3049554452708643, 0.33956052327254777, 0.11008974254848633, -1.2106294647198275, 0.6108264115662586], [-0.004606316639861943, -0.8413245849026534, 0.03340674652318518, -0.24447824475118646, -0.5533223691697795, 0.04335084900249471, 0.7899128729244218, -0.22468590281344913], [0.7206866796054288, 1.1935628723714242, -1.8135097102893083, -0.050427119242374134, 0.23985564043472832, 0.13802769633321715, -1.9432846967465447, -0.03319958858970644]], "biases": [[0.6451516504103487], [0.48326007715301683], [-0.17573714630671247], [-0.8406801951207137], [-0.6660117658886968], [-0.5328328746694961], [0.1345759812336772], [0.10239796721191217]], "activation_function": "sigmoid", "loss_function": "ce"}, {"neurons": 3, "inputs": 8, "weights": [[1.2159701404445373, 2.299662080571871, 0.6365187899128956, -2.878236613047107, 2.8008157787324737, -0.6967095518607164, 0.9397070930030599, -2.4358337700779233], [0.14998302941205818, 2.4700535098363154, -0.3529081536645115, 2.25806800403666, 2.59462561116815, -0.09328490701651128, -0.8705853201455316, -0.2802233472582158], [0.8011544961276745, 0.29300479635715526, 1.2345021477849762, 2.586892038683854, -0.9242527540352224, 2.3518896560672142, -0.1926806512213309, 2.328172597696618]], "biases": [[2.554599648079301], [1.506758891089483], [0.7402691886036927]], "activation_function": "softmax", "loss_function": "ce"}], "accuracy": 93.75, "loss": 0.22695972159351355, "epochs": 50}