{"inputs": 4, "outputs": 3, "learning_rate": 0.1, "model_compiled": true, "layers": [{"neurons": 8, "inputs": 4, "weights": [[-1.1980620842958467, -1.389382012392828, 1.911786285145301, 1.7971653361188404], [-0.6478860781629479, -0.6972618152122247, 1.3061556889962278, 1.060215432090661], [-0.16711924924669477, -0.6518478415051556, 1.0996154079672267, 0.8758895162836916], [0.7488954519190297, 0.2540011276686966, -0.6816784951361697, -1.4331584486694733], [-0.7427300571450691, -0.7696545916047017, 0.4532695813571135, -0.1136196968951569], [0.20063127778306603, 0.5971378264658889, 0.9410141726191932, 0.13261557606889532], [-0.8997704738453277, -0.43050178873053735, -0.06911451713237556, -0.28917576593408556], [0.6250745439907223, 0.15577864602078909, -0.7506188401886924, -0.6130664248923341]], "biases": [[-0.6837340721817232], [-1.2311556459304298], [-0.005601666836334101], [-0.8643126801658811], [0.7312618263744967], [0.5927198238582277], [1.09409252273032], [-0.7721608983489493]], "activation_function": "sigmoid", "loss_function": "ce"}, {"neurons": 8, "inputs": 8, "weights": [[1.0740567141916733, 0.8007959517444297, -0.16013479028747082, -0.014017550016047854, -0.7184391867105454, -0.08499913832540426, 1.0221587428266108, -0.10306856287300119], [2.7607088788866947, 1.7517215800565669, 1.62327870116138, -1.2649864096896335, 0.5402488179052224, 0.5410325468341485, 0.4064461070781744, -0.5314671314281104], [-1.9785062056498466, -1.423005667612357, 0.5087620552235044, 0.46325402271676624, 0.5935850278921626, 0.9233404066104838, 0.06691015007758673, -0.7089052198039452], [-0.21987390439018262, 1.39487886883591, 0.45192305044059156, -0.1361900489714228, -1.155160779916594, 0.9369442191611966, 0.21634409848212635, 0.18818589873579328], [-0.5469044900196581, 0.38126202343304033, -0.5169385235252806, -0.7618933977096171, -0.37644047927154195, 0.19253622497767148, -0.15928048641921333, -0.23474241623183909], [-0.6585056460445937, 0.19637687170109874, 0.8934420738152888, 0.7349197906003753, -0.4586439268463848, -0.5268100340654202, 0.6256292125799022, 0.19991534367841707], [1.7010380707191204, 1.8020992010684993, -0.3128704965544261, -0.7805275059088574, 0.07472283195240731, -1.1846556766435963, -0.0567189039993598, -1.2833454793551677], [-2.7139928619520703, -0.9765615881448066, -0.09062520778584218, 0.5266000790344398, 0.31600542985061747, 0.8051894728899316, -1.007191619136977, 0.7553030993954004]], "biases": [[-1.0361472924690331], [-1.1722830374245694], [0.23672953955968834], [0.6999927800669341], [-0.5451521134009342], [0.34419163175680817], [-0.06024632759381554], [0.7541453393343746]], "activation_function": "sigmoid", "loss_function": "ce"}, {"neurons": 3, "inputs": 8, "weights": [[-0.6488056653075827, -2.1075402675190293, 0.6550930561125179, 1.7694085726786453, 0.01298931240886752, 0.843447010152206, -1.038741226791736, 2.8691783202006667], [0.25480692136971356, 2.8649337358938083, -0.1485336217716044, 2.30566233382788, -0.37999705256121824, 1.5718757771460796, -0.21742294558241182, 0.36662175811645725], [1.191443996206231, 3.363958182886314, -2.408992252856717, 1.7085108189433695, -0.0877141514845476, -0.3990910464061441, 3.6926475874371727, -2.8072709030209286]], "biases": [[1.3753669594075901], [0.30357976466114983], [0.5937342866904095]], "activation_function": "softmax", "loss_function": "ce"}], "accuracy": 93.75, "loss": 0.22078055329470742, "epochs": 50}