{"inputs": 2, "outputs": 1, "learning_rate": 0.1, "model_compiled": true, "layers": [{"neurons": 8, "inputs": 2, "weights": [[0.02287409859615869, 0.5510481765224446], [-0.0074618397567431625, 1.0902924126608113], [-0.7854514053426654, -0.5570570992492497], [-0.5526036750075644, -0.027186937069171857], [-0.474514937395351, -1.4663882613588928], [1.7546635586669488, -0.22219461431393217], [-0.3910687066837087, -0.33306562378566296], [0.6995531150881058, 0.3094095852013406]], "biases": [[0.6413663254389542], [-0.693544517500389], [-0.7414503445367626], [0.6150985721389775], [0.8125451716869326], [-0.6181338277130379], [0.5041404292592835], [1.6341372621747339]], "activation_function": "tanh", "loss_function": "ce"}, {"neurons": 8, "inputs": 8, "weights": [[0.7124279885961903, 0.6049156154512619, -0.6084686263256743, -0.44112656763394775, -0.036834522228001494, 0.6884991506938964, -0.24392632473289463, -0.22904185102546085], [0.33007163517729926, -0.06427481770169037, -0.11993101158949397, 0.4985253440548411, -0.2952332405353824, 0.8633444677803259, -0.8628079525340385, 0.07372867341532802], [0.3863812242766629, -0.9169825898254221, -0.38120718749937005, 0.347488757824191, 1.1249578231949324, -0.16506743735417218, -0.495868469360846, -0.48304386277152594], [-0.43330703162437795, 0.0372345696991424, 0.06453788473456311, 0.3953504893393723, -0.46083813560159087, -0.8079337958776852, -0.07134113988630127, 0.026527166633909714], [0.11866188117594889, -0.5092753398556916, -0.22435780519618306, -0.16093875152108403, 0.5636168881130582, 0.6620281442287498, 0.1767655600860541, -0.1211759427926649], [0.8776671352357225, -0.08026390302164309, 0.19942054982044385, -0.22248970080464722, 0.1621423489426367, -1.6066927994892428, 0.18079970537302598, -0.04483700227411523], [-0.24828033215014286, 1.2822359223531914, -0.3842611383225521, -0.2387480158221687, -0.683535638134689, 0.656214050940327, 0.8988241470280794, -0.00247319070370889], [-0.8043591234970122, 0.3118095676984941, -0.2969861194842571, 0.6468796490122848, -0.5279008263475801, -0.5247918373025753, -0.5700317588259767, 0.28385183750907383]], "biases": [[0.3038735737363562], [1.0647220596304299], [0.5128391551961899], [-0.17882443478718701], [-0.2648939894326345], [-0.2804610676976147], [0.7046156166266885], [0.7005276067451006]], "activation_function": "tanh", "loss_function": "ce"}, {"neurons": 8, "inputs": 8, "weights": [[-0.5243264105414644, 0.6246807682471451, -0.523249728629581, 0.1229345103369759, -1.0369173393092967, 1.037997455431965, 0.8523567235707019, -0.27776795997210996], [-0.5207492705059792, 0.1365277117999793, 1.400139330043496, -0.20726458471024123, -0.45986070125714534, 0.4945447437434574, 0.6093631963416892, 0.6634824173214787], [0.5630383721016109, -0.034654523811690034, 0.4392047136116853, 0.16362605627499752, 1.1019528369709506, -0.21461783856752883, -0.13889708684900326, 0.05796252190342161], [0.6117323433860394, 0.6010960589873279, -0.5820724426885443, -0.540392394118999, 0.6985762625763772, -1.1964717839524053, 0.09432495835214912, -0.4436448080954823], [0.10169116446037843, -1.0074810241822216, 0.4141374862250959, -0.18838839750315123, 0.45055276333036287, -0.08668903783654218, -1.5716224569970951, -0.3188476967952896], [-0.06412904610399821, 0.5299834382963081, 0.4032527103335858, -0.12586807935752184, 0.21421260040409035, -0.36663554536213433, 0.1326512557333868, -0.09923787534069342], [0.7749010780765815, -0.05353440549141688, 1.1090010865623745, -0.1381513632875794, 0.7037607178786632, 0.5416060571502918, -0.4791842691929148, -0.8117278809754539], [-0.44060847107560025, -0.3426008818209661, 0.6919844271001196, -0.3903717769550677, -0.0854202362184058, 0.08383755802567142, 0.4134963434606543, -0.26370134635444686]], "biases": [[-0.7659658901593898], [1.287113256931882], [-1.1924682360538745], [0.1739303335826838], [0.2669037180001338], [0.7686991119815461], [-0.8870007051159757], [-1.6540025688734723]], "activation_function": "tanh", "loss_function": "ce"}, {"neurons": 8, "inputs": 8, "weights": [[-0.5092993676608731, 0.4441976106046343, 0.260427411344545, 0.7694851649506474, 0.7162337566057494, 0.028357010478404346, 0.28787274653683115, 0.19457401909120509], [-0.6473626986759999, 0.3299089590268533, 0.13537327815588512, -1.3570601100173543, 0.9399039243318285, -0.17026356483330554, 0.6032649278182637, 0.5845109407515582], [-0.8981350492114192, 0.1377209337359344, -1.226085172322861, 0.35760298799798046, -0.030762592519046752, 0.058974670622211046, 0.11010923636662005, 0.1636852332823483], [-0.4700938907628533, 0.2535454370538126, -0.734206995670546, 0.4948618105000359, 0.3700364278950172, 0.2647496987541034, -0.06433619482507912, 0.635574053232145], [-0.27104890314523494, 0.34826286692838304, 0.6805991630163536, 0.48751260829897236, -0.22597409939639543, 0.3914844772231207, 0.0330806568876387, 1.2213083595144378], [0.5646094336120094, 0.009371455810594394, -0.06565071957183624, -0.6287674997752709, -0.7491050013108449, -0.34351810795495996, -0.16943046602190354, 0.4149746019929515], [0.9977562724726196, 0.6564446124590099, -0.5716463360157179, -0.46616560934576956, -0.10142438367077462, -0.9208331999783218, -0.12770906073309166, 0.16752506513939647], [0.31035240590292645, 0.29815232388114815, 0.46347553582392276, -0.6038356450903097, -0.0663400861871598, -0.2247050292482375, 0.8465767448166549, 0.3142661975131332]], "biases": [[-1.0076959910179544], [-0.04680680899130575], [-0.6394186848879796], [-2.776699345793037], [1.9533758443258031], [-0.45519312504506515], [1.310765300143623], [1.4061470183446734]], "activation_function": "tanh", "loss_function": "ce"}, {"neurons": 1, "inputs": 8, "weights": [[1.1225996679936372, -2.064052344113339, -0.706409519358639, -1.0359132190930662, -0.3705048321772271, 1.5855385999364695, -1.2642068319451052, 2.5590210821427193]], "biases": [[-0.8424035797435049]], "activation_function": "sigmoid", "loss_function": "ce"}], "accuracy": 84.07315040766682, "loss": 0.02536645379368037, "epochs": 200}