{"inputs": 2, "outputs": 1, "learning_rate": 0.1, "model_compiled": true, "layers": [{"neurons": 8, "inputs": 2, "weights": [[0.047195775981759135, -0.015432016922951255], [-0.2627634772267083, -0.6854447218900703], [-0.04476189419821172, 0.6481433763766549], [0.0901650051399943, 0.11843887393308374], [-0.19525900335644544, -0.5147271255890752], [-0.023000823954122326, -0.3697184386434832], [0.8068868281601006, -0.1297160288413192], [-0.6701051386855672, -0.30131817252594734]], "biases": [[-0.8933333069778009], [1.32713508174309], [-0.872713369895798], [0.4676452248673262], [0.7856440333112245], [1.4125030484596568], [0.1891577621133647], [-2.191734065168478]], "activation_function": "tanh", "loss_function": "ce"}, {"neurons": 8, "inputs": 8, "weights": [[0.7071820227375584, 0.14099147424577813, -0.5280233732513221, -0.6080605777744423, 0.44778152432328167, 0.555400353435965, -0.7571120531417238, -0.029463163907904627], [0.09800110141883976, 0.8288002758444908, -0.16706885762825374, -0.23873800873315804, -0.689830662016259, -0.049055507161788726, -0.5292710883293389, -0.1809001477176718], [0.13187417664027062, -0.13237808392050326, 0.8734927822088363, 0.3290190114788454, -0.644504191183386, 0.7684080981733789, -0.269915803541066, -0.09324672535510332], [0.2345313105681281, 0.09788256207196996, 0.23219622952895563, 0.7098357261940961, -0.2432469768904367, 0.06195251374666787, 0.5038026163222512, 0.23325786993501535], [-0.48231008646224915, -0.1769262476915753, 0.33665061490019244, 0.13983098101464753, 0.5468363332554756, -0.28065407945229565, 0.19496161773507226, -0.6434921034128821], [-0.4709470378628945, -0.9399192784538019, 0.11534035691095716, 0.7286244788766044, 0.4112301126795257, 0.0236572649676878, 0.3662684254554602, 0.6064213505334383], [0.07815897431029079, -1.1260620797752197, -0.3192729112004012, 0.39875919955718697, -0.3713457204078057, 0.7592558389150138, 0.15686628004446732, -0.01716765981136779], [0.0415720382089533, 0.10817975686236685, 0.2929927595279693, 0.17915328130796482, 0.45400015234782864, 0.34869953250022434, 0.33342723192056584, 0.3159346833825835]], "biases": [[0.7550117739557187], [0.5171760324483318], [0.2975974342495544], [0.07476741718125929], [0.9884565513590268], [-1.4456336464284407], [0.2815376078102175], [-0.38744251499173576]], "activation_function": "tanh", "loss_function": "ce"}, {"neurons": 8, "inputs": 8, "weights": [[0.06446316854761011, -0.37529483765939325, 1.1445423220275341, -0.22078862361690527, 0.10872978440693117, 0.8350362448651822, 0.18011600972654473, 0.18847834765856203], [0.21912378875288038, -0.4131811405836999, -0.10979439216902544, 0.384607614315192, -0.31210145647100995, -0.004894006426329069, 0.15699349787291728, -0.16646889054136957], [0.020677323608363232, 0.11678928257406584, -0.513330136173145, 0.24933981791055074, 0.4181256165669388, -1.032034191086012, -0.7215490865608186, -0.9604173959534602], [-0.30990645834429664, 0.4975740132506522, 0.5036888508304219, -0.3155033112139191, -0.03715379284108778, -0.9142126350446377, 0.835448570335597, -0.3247806121033397], [-0.05958221338460541, -0.057437867939090746, 0.4920515920714821, 0.5734793115950547, 0.03532315847175043, -0.1659859954420016, 0.3120016588277223, 0.08322307230999439], [0.04575843692425661, -0.24042244743573477, -0.07742148474284233, 0.8343870483422381, -0.08210147958979262, 0.2277583183652184, -0.16684176762950084, 0.5389719848331646], [-0.4975986536134537, 0.11651616415565107, -0.42816144081145024, -0.043050309650629774, 0.20749964738713725, 0.3262074685516469, 0.30158385664236426, -1.5618278691608232], [0.294592562418885, -0.9020113915924288, -0.06801378080295656, 0.3042194812865557, -0.38339358510131183, 0.9794684902243672, -0.5024678634674017, -0.10451537768924657]], "biases": [[0.588454184160992], [-1.3757711351686899], [1.7049929397308052], [-0.43487549478437904], [-0.15017621528977076], [0.12406750018032278], [0.42713871861177044], [0.7413053299664338]], "activation_function": "tanh", "loss_function": "ce"}, {"neurons": 8, "inputs": 8, "weights": [[0.027213672767053255, 0.5761476186041856, -0.03365926262783079, -0.5883521408630622, -0.7303163626828786, -0.9619610320672937, -0.000879783976973425, -0.46854519711895265], [-0.38049239377691313, -0.6219086352403664, 0.02115403127952767, -0.13946715569596, -0.22702750643078423, -0.19106456317777087, 0.29000032694306416, 0.15421082003080822], [0.6768587274505163, 1.2839599240647925, -0.47531235466847954, 0.05355144593277544, 0.1495266570127119, 1.4903522674657432, 0.35420893445230534, -0.613720803637327], [-0.4087966341304737, 0.5010449904305295, 0.5072122704868713, 0.04381105362415638, -0.7076109334577481, 0.15486102120302098, 0.16569457589069664, -0.3687566427086827], [0.07546200207473554, 0.6292630358454119, 1.6417382083274599, 0.09959947908689801, -0.13433714763484636, -0.12204590460149818, -0.6761858679910371, -0.6411358966917223], [-0.12460767070836502, -0.030900653689711326, -0.7852335434097796, -0.5291471306030406, -0.30997741420432673, 0.37156621892628183, -0.9077218686283852, 0.05466042733088217], [0.4190634535479947, -0.6686754427938763, -0.07648959093992683, -0.16200304363802068, 0.6897956433722756, 0.3364168491510411, -0.06272090383203645, 1.3802122136852895], [-0.1477844364819448, 0.6524458215006741, -0.40040803956474785, 0.45454607353221116, -0.008755414732013916, 0.4938047547786701, -0.23348514719333086, -0.3437232533117817]], "biases": [[-0.1413097961192315], [0.9008049890833765], [0.038960263840355606], [0.8005503257273006], [0.2344586263461842], [-0.9224655031999521], [-1.119642869433527], [0.21020392476027983]], "activation_function": "tanh", "loss_function": "ce"}, {"neurons": 1, "inputs": 8, "weights": [[0.3518166874594314, -0.5066371754584541, -2.3064271940004866, -2.0368063989033636, -1.463723648455644, 0.44338531559628075, 0.7468506650461431, 0.08107171587397334]], "biases": [[0.24277909387129548]], "activation_function": "sigmoid", "loss_function": "ce"}], "accuracy": 100.0, "loss": 1.3541749275510464, "epochs": 5}