{"inputs": 2, "outputs": 1, "learning_rate": 0.5, "model_compiled": true, "layers": [{"neurons": 4, "inputs": 2, "weights": [[1.0630117350805268, 0.9551769418961563], [-0.03222127020243215, -0.00697476912694051], [-1.5145918132221694, -1.5083517721776958], [1.0279155109907099, 1.1139821422614589]], "biases": [[-1.3304936412395594], [0.25725424230162786], [0.6871377407154752], [-1.4236922676720751]], "activation_function": "tanh"}, {"neurons": 16, "inputs": 4, "weights": [[0.4336973389478975, -0.02172582014689337, 1.223333396005846, 0.8625183345599781], [0.37372774041882567, 0.33960243120115347, 0.1725895536607227, -0.1132868552922923], [0.33034626752197344, 0.44647429044391124, 0.6684995905292459, 0.38095831002716074], [0.501743807252031, -0.03347088059251525, 1.4539711768897623, 1.0846330518975134], [0.12080178118583866, 0.6074345568645879, 0.3897610556409686, 0.21653191016805529], [0.5002898355690136, 0.4092121483258096, 0.8299332002688128, 0.536447905358651], [0.06441917378432441, 0.6806277291672664, 0.6920146588911217, 0.29601706358386953], [0.5343910569737815, -0.037174641530318575, 0.48143377613637794, 0.9016736117708392], [0.710666756329636, 0.7724162927329273, 0.5949944578335309, 0.6649136370695626], [0.7467339570459567, -0.043815872747963225, -1.1824459040192024, 0.7201858207205971], [0.7930851734419687, 0.1108119180339272, 0.832864939366258, 0.9111303571868807], [0.6491999860971179, 0.09737554935271048, 0.8467417768254745, 0.2617654932917932], [0.6656942792189099, 0.07114358858268394, 1.031616728317093, 0.5955793401666473], [1.1558509409152413, 0.39640137157724664, 1.4712386446656724, 0.4943730343072667], [0.4058049158759073, 0.8402989836666963, -0.11827895839597379, 0.21523795845890162], [-0.5069071183879514, 1.068360407259362, 0.21659324996333595, -0.186697985452824]], "biases": [[0.903720886341606], [-0.08236371617750818], [0.5701891959396784], [1.0647749290212796], [0.1377068511997218], [0.5999724152371136], [0.46355846928532224], [0.1948145663334738], [0.2392796904325803], [0.531650244970651], [0.46382194769272456], [0.7253053261906357], [0.7456204145097288], [1.020961278200887], [0.019621780117506638], [0.2613352549404496]], "activation_function": "tanh"}, {"neurons": 1, "inputs": 16, "weights": [[-1.2655304522038242, 0.02799529726613041, -0.628474634715781, -1.6269138341334481, -0.160138162009074, -0.8273356342068834, -0.35362730520437347, -0.8075936164173976, -0.6196693099929667, 1.869095681655809, -0.9821946163774926, -0.9403329004216587, -1.1250946837701696, -1.4935551446691129, 0.044543488644774365, 0.47894622862002756]], "biases": [[-0.7028552421721469]], "activation_function": "sigmoid"}], "accuracy": 98.70515235909923, "MSE": 0.00016766304131463034, "epochs": 1000}