{"inputs": 2, "outputs": 1, "learning_rate": 0.1, "model_compiled": true, "layers": [{"neurons": 8, "inputs": 2, "weights": [[0.33637069109355594, 0.17390320386472588], [-0.1908064482728575, 0.6407201263316834], [-0.22067632619022223, 0.7776500817180372], [0.3408989904528155, -0.21635803193994585], [0.04554287172070848, -0.41822837408843044], [-0.19980051418451084, -0.33035079943611173], [-0.3801627933120006, -0.054393795186807606], [0.4597596276114064, -0.11442287891065125]], "biases": [[0.07012592904905257], [-0.05656308686508337], [0.16989341804611338], [1.1069249135695984], [1.1395787609035213], [1.7207640161610325], [-1.2207037031578956], [1.2245289673106454]], "activation_function": "tanh", "loss_function": "ce"}, {"neurons": 8, "inputs": 8, "weights": [[0.25965191741864496, 0.25817675818651104, -0.3134416759685026, 0.40625842777374827, 0.42431241147329585, 0.2561203339762016, 0.5865222045298839, -0.13736058898330727], [0.10231932133233376, -0.27615644011686297, 0.49680504615746707, 0.28219982591995185, -0.19627697258332025, 0.3380767635911565, 0.4645604057359767, -0.24144544277087268], [0.20419552993383713, 0.3582710144981997, 0.36861292892937875, -0.25282045040368784, 0.1880418686801909, 0.07969406996409631, 0.9356044081889684, 0.5883566990869051], [0.34956653867809295, -0.3738939450237859, -0.0834821425702573, 0.061872716520547884, -0.5508424571575554, 0.3274379883292852, -0.6691598925107464, 0.5001574068017949], [-0.10639401737868455, 0.14285265609225595, 0.09298426087380819, -0.03809356298140483, 0.46850302297890006, 0.5421183529809397, 0.07812372035860568, -0.0738620857963269], [-0.17644116725729728, 0.46246485359905637, -0.14264852708512318, -0.3060137657103258, -0.03692260651334452, 0.28643618843150964, 0.6363300738392512, -0.14270458028012484], [-0.46841451452075245, 0.05082489851665337, 0.14803845500388602, 0.3401788112880244, 0.7569613955032132, 0.46670763605335214, 0.33524838741932494, -0.21403008566131443], [0.24162214927509218, 0.1330350325098507, -0.14112145690323188, 0.5630447562327904, -0.1033985186179613, 0.45845092300862605, -0.5038892449816468, -0.5213203696692896]], "biases": [[1.514296672631289], [0.04637307649840927], [0.3950172825103759], [0.7287127613879668], [-0.38736218765496894], [-0.753198635291689], [-1.11479439658435], [-0.7217141490393734]], "activation_function": "tanh", "loss_function": "ce"}, {"neurons": 8, "inputs": 8, "weights": [[0.15404953350769224, 0.6307349472837275, 0.6387138579558407, 0.9668005389447255, 0.13428221990816172, 0.038682511996175735, -0.3546012938779783, 0.5071626338758132], [-0.43377103564503533, 0.608041158203743, 0.20584539847863562, -0.11819149881614426, -0.16707197210656247, -0.23081952864221847, -0.6713516667143204, 0.054556366477600454], [0.42635562760773466, -0.9252595514241998, -0.5469517091140954, -0.1423758000826859, -0.37736042378268575, 0.5768271385713295, -0.5447224314987135, 0.452421008716936], [0.055361804889765706, 0.037233700182598674, -0.3232369506832046, -0.8572361844121212, -0.3736867426401673, 0.04682999642453143, -0.8710097183366238, -0.164451974063632], [0.5134651864443605, -0.2316085457989233, -0.46911177959459965, 0.27923371733838664, -0.8233569988396884, 0.573959123489172, -0.08443707168001181, 0.26244044184072335], [-0.838278300646873, 0.7172579003844128, 0.828771425566642, -0.7659780989390139, 0.6100965290695398, 0.8420856065566599, 0.06920734288914684, 0.5928410450599035], [-0.5724225732156366, -0.4164086363256152, -0.8811311614395442, 0.21219066598629868, 0.13783156566930446, -0.10437577508530889, -0.28761237095386116, -0.14104961754403378], [-0.16837503876816087, 0.015521564872375855, -0.1839246117920078, -0.12652176926449893, 0.09413156533345535, -0.31297456737168367, -0.08726923582425174, -0.6036427838127375]], "biases": [[-0.09267218328189585], [-0.3621706120381111], [-0.2463570229435273], [0.7207555259997953], [-1.2867415304801424], [-0.13283781171464445], [-0.6194963139526217], [-1.4086638166946368]], "activation_function": "tanh", "loss_function": "ce"}, {"neurons": 8, "inputs": 8, "weights": [[0.0848331572587948, 1.2911188339832806, -0.08701867804381587, -0.6037260716530559, -0.20581563998861874, -0.05039766691633668, -0.17478893707691634, 0.0647994910531466], [-0.26395740493657033, 0.48322255557924393, 0.4120583613909243, 0.13832577525507975, 0.5244683071779306, -0.7146087787554806, -0.14957574802096, 0.03041846656111108], [-0.3610650240812191, -0.4801414513584106, -1.1161205710367461, -0.5652412779483247, 0.2553763441422126, 0.1785205387942113, 0.1940534919604148, 0.050278240982455834], [-0.07476945500598901, 0.3062897667337674, -0.44903666935447883, -0.47539340398459157, -0.3378920637364498, -0.05200849290138192, 0.3670289153489826, -0.12991729984724665], [0.1297851868117947, -0.25870778796276495, -0.3446751261915653, -0.5994429975555101, -0.26384325503279427, -0.1003921874932131, -0.8696910530899506, -0.8020283209322238], [-1.5977188394677049, -0.2708781695170537, 0.6933234917687467, -0.26468305560224153, 0.23554653810755805, 0.32965864689082713, -0.05138205096091721, 0.8452649209085252], [0.8374917656461509, -0.6118344505030425, -0.6364574725096451, 0.09553343515425172, 0.47361989725153786, 0.29523795099333644, 0.4433971834657605, 1.0716126247752902], [0.3543534158360522, 0.33445662954038397, 0.5927111848197666, -0.6565341846207382, 0.08823623948424575, 0.33904635779425485, -0.011702437883231605, 0.5356571016733016]], "biases": [[-1.0481234162194775], [-0.789746052459314], [-0.8063798269617146], [-0.10364469896972721], [-0.41110302258857145], [0.19951036718303064], [0.6906699457746923], [0.9694775546777081]], "activation_function": "tanh", "loss_function": "ce"}, {"neurons": 1, "inputs": 8, "weights": [[2.692775225376802, 2.906845092492849, 2.4702864352061535, 1.0533300828559757, 0.1908230431074034, -1.2542933803999203, -2.086338079924779, 0.21192068125971836]], "biases": [[1.8587175683208923]], "activation_function": "sigmoid", "loss_function": "ce"}], "accuracy": 100.0, "loss": 1.7107321963318176, "epochs": 5}