{"inputs": 2, "outputs": 1, "learning_rate": 0.1, "model_compiled": true, "layers": [{"neurons": 8, "inputs": 2, "weights": [[-1.3753083295752122, 0.15034418453015544], [-0.41523192510518314, -0.007327510640840365], [-0.41562187703506615, -0.545192820316922], [-0.5716372277812508, 0.036253492901851925], [0.017025559587816715, 0.3593848149599628], [-0.30356576090422044, 0.33905700660893884], [0.06747658563134075, -0.4908493385429437], [0.3377117201804361, 0.15588960780552552]], "biases": [[-0.3390511811549372], [-0.06413698603574436], [0.1837568192527025], [-0.5677000315895345], [0.44856806772157887], [-1.102175771262685], [0.24185326248806893], [0.03993788684767063]], "activation_function": "tanh", "loss_function": "ce"}, {"neurons": 8, "inputs": 8, "weights": [[-0.060135724011026535, -0.15932597507071636, 0.07477675051510475, 0.7407618179497634, 0.40832342276339095, 0.11458638724515932, 0.7831308646363833, -1.339976521997455], [-0.4591223866123693, -0.04842911188816205, 0.2653521429205611, 0.32217316464204876, -1.0632097604220188, 0.2827468485301049, 0.05519872931570096, 0.3911859922936498], [-0.8253536807474026, 0.019933841916542346, 0.4320735650097443, 0.03630394041877124, -0.2897991983322426, -0.03833188549943627, 0.607671000905917, 0.8634972912073218], [-0.8273964626473903, 0.415829096161575, 0.9560373020141499, -0.9509797370458871, 0.6768367048409529, 0.0649767095289374, -0.2082716275332653, 1.0544137757593928], [0.02651420996862896, 0.15103699446358798, 0.46730440320206884, -0.5911618924802989, 0.18967357563243734, 0.2737259295061902, 0.021204519817017813, -0.2925354594834393], [0.05740367984816386, -0.5202349087422319, 0.5418382315304519, -0.8396360531072249, -0.30444204951990966, -0.29627769108598834, 0.13322879004786378, -0.3865373889093805], [-0.5305197611331717, -0.6160584849560486, -0.7962522984001118, -0.45579506318619006, -0.5263168477946497, -0.14011727102263447, -0.5156843735492698, 0.36759400732544273], [0.697826227564423, -0.5553839952000647, 0.5260095132658982, -0.9387780809051193, 0.2644733762690992, 0.38309761575657403, -0.8805186133084189, -0.372364624916508]], "biases": [[-0.5423197835223824], [-0.5690012568296487], [0.489306250493848], [0.8065447401757814], [-0.450755585742097], [-0.3127613028809123], [0.002234851063887903], [0.681123722916795]], "activation_function": "tanh", "loss_function": "ce"}, {"neurons": 8, "inputs": 8, "weights": [[0.46930276486663997, 0.3047456410470754, -0.7061483569893832, 0.26478779545950604, -0.33103132839051674, -0.07361790867474981, -0.954348738624532, 0.443885114280177], [-0.592615346192633, -0.17367877438183615, -0.3103254905611784, 0.5687993869651835, 0.3347671444978713, -0.6224399396831802, 0.39998654799211314, 0.24320962960248893], [0.5040045498797618, 1.5285690208429865, 0.09858333907992313, 0.010428217552786946, -0.7646698255672126, 0.09451391458979935, 0.6360010764303061, 0.18495854984071639], [0.3041970426755466, 0.024210752669570575, 0.44981039679681173, 0.10450770109633273, 0.1102007106421207, 0.3143685435786734, 0.7415192010236579, 0.20774932226976564], [0.9198426773399988, 0.5986988032652796, 0.3378847484714878, 0.43149829244870685, -0.009114309430908404, 0.5136582069088703, -0.07419712960773252, 1.0822040515142943], [-0.23721677988149487, -0.11384832873755676, 0.6421342991696576, -0.5601485886160636, -0.19333880753593902, -0.6533557498014366, 0.5351652661264559, -0.35355659350630686], [0.24242298953532262, -0.464264013426433, 0.33658938959801876, -0.059929889115882026, -0.4517872575129647, -0.07738809648677297, 0.3481294466160753, -1.038762176198914], [-0.3639641385527946, 0.6784304660789108, 0.5425038739352278, -0.8039370726810342, -1.1152288862257613, -0.2261843333993021, -0.4457283739822363, 0.47149823815636577]], "biases": [[0.6432156470941746], [2.1877917497478228], [1.6459587039428747], [2.1012552618437645], [1.1837527377688404], [-1.0720196206649522], [0.4044088093461739], [1.1735973978292844]], "activation_function": "tanh", "loss_function": "ce"}, {"neurons": 8, "inputs": 8, "weights": [[-0.045677388641986706, -0.30435950483239527, 0.21969448692108118, -0.8153619295327633, 0.5258619978540572, -0.0382603523783904, -0.08673744925359639, 0.12770980294626513], [-0.6026797662245241, 0.07474580360354668, 0.8644790866418007, -0.06202252623599437, -0.45706686253246404, -0.649516051416644, 0.43086583071056966, 0.23258944880493038], [-1.4828512376888527, -0.03903601602076271, 1.5509487978933187, 0.3039648434947776, -0.25773239369034284, -0.2424933540531234, 0.05821080771385857, 0.23426956764724974], [-0.2592876968988309, -0.5136179062915845, 0.8002710597288846, 0.8228602510699428, 0.38462736491488336, -0.29207891068019637, 0.6406243646982147, 0.10034393496493998], [0.18380883292714412, 0.1570536437898452, 0.5061058916690058, -0.15531640327910845, 0.14535728025877415, -0.408267227481493, 0.24248670261643823, -0.0456317458974366], [0.29550834458930914, 0.4693672355938473, 0.4755409892033984, -0.46549521972829166, -0.8689669007985027, -0.24058099274236514, -0.5752176211810549, 0.3447723359398511], [0.19488023989614142, 0.27568990071859173, -0.7857837167677629, -0.1593945586371372, 0.0942459842531023, -0.6883047149413559, 1.3769493715535344, 0.25915486166372353], [0.14812308961860146, -0.09172476148209636, 0.033841930236384, 0.004112683087247954, 0.3114811869163326, 0.3542047139565509, -0.18943715553594165, 0.376494931014218]], "biases": [[-0.3532914953738234], [-0.05437607765454393], [1.9221901583570784], [2.0661133918534365], [-0.3747856742755311], [-0.4938421536980644], [1.0527754106663716], [-0.04345189135118065]], "activation_function": "tanh", "loss_function": "ce"}, {"neurons": 1, "inputs": 8, "weights": [[1.1198517586809946, -0.3238548387636129, 1.4958094916671891, -0.8427347691990468, -0.10681344546399801, -1.8896069162810853, -0.11215686285194543, 0.5882900392618033]], "biases": [[-1.1142919860824625]], "activation_function": "sigmoid", "loss_function": "ce"}], "accuracy": 100.0, "loss": 0.5127554891233027, "epochs": 5}