{"inputs": 2, "outputs": 1, "learning_rate": 0.1, "model_compiled": true, "layers": [{"neurons": 16, "inputs": 2, "weights": [[-1.153184880161322, 1.1484031797010275], [0.36528831110761173, 0.4905884721003184], [-0.0004067038340136863, 0.11447922581358527], [1.3463793398001085, -0.5426827374426202], [0.17845708838655816, 0.6876668369079412], [0.6500441300782518, -0.5263665628612352], [-0.33906431055556646, -0.1092618118752458], [-0.15280395025954618, -0.13724848448441918], [0.18869939134449593, 0.32046724345642336], [0.30337543834778613, -0.09209974180688657], [-0.870574080948896, 0.8042324552777849], [-0.2453460439614464, 0.23558188924104773], [-0.20975067680350318, -0.16310899413086288], [0.23058173078703426, -0.7056176900704654], [0.09887527949710871, 0.9472321034229434], [-0.2459118159898672, -0.1612251410584766]], "biases": [[0.7029014782509572], [0.9587975647025895], [-0.5096584912228886], [-0.05310700807613599], [-0.14674894655832582], [-0.785877846665229], [1.406801175910449], [0.7632944422825904], [-0.5648268347426233], [-0.2754694836761346], [-0.2877561216833048], [-0.42571059404758105], [1.6123409637127901], [2.065021396230522], [-0.33146306706654366], [-0.996616026212124]], "activation_function": "tanh"}, {"neurons": 16, "inputs": 16, "weights": [[-0.5277465598598745, -0.16665361695823896, -0.18516730301638384, 0.7062539344712508, 0.9183523843553917, 0.25885675737766817, 0.14821645334630895, -0.11351485500043555, 0.05666313382202073, -0.020733744518757195, 0.3799797602627331, -0.13309154635932757, -0.5214370685228419, -0.05410571974231276, -0.09722350183732016, -0.21754732292598933], [-0.42516978747169704, -0.005922111638164284, 0.7439831548516909, 0.633789220092721, -0.46048054947766204, -0.5503107651335247, 0.1371654377561595, -0.611086395848869, -0.02679746946540896, -0.025714674568886788, -0.24491013832397185, -0.23327992282400506, 0.5118284554805321, -0.09531271311971855, -0.13578258058441725, 0.08117448397379447], [-0.15556091966133553, 0.2461206203516708, 0.3749774359661188, 0.12756562418064368, -0.708800971485966, -0.45502712490233943, 0.07537166804525895, 0.0823841681154704, 0.3597431067625335, 0.17380098414902465, 0.3635373985963852, 0.16061385828046773, 0.15537693744026043, 0.5636720599358708, -0.04572475250778315, -0.006866126524526805], [0.4637908149189356, 0.14679671149423126, -0.12747562967512144, -0.1535440153030481, -0.15641377743211612, 0.039447782372146155, -0.4841139347530694, -0.2704039696963776, 0.01725798101898988, -0.0028238047548627843, -0.3557226110585491, -0.14359044284732642, 0.10499389424065911, 0.5701920607614305, -0.35091605084980654, 0.4934495124065276], [-0.9674022273219277, -0.13685681710708675, 0.13307385295979474, 0.46594740387397965, -0.3037163157338357, 0.928098066105804, 0.10774673569106592, -0.06510046297860353, 0.031065600158684026, 0.17176719569168206, -0.8846791903965695, -0.19831933971579627, -0.02397143842608426, 0.040441799328612284, 0.07462879766237793, -0.24819752640273007], [0.13677550966105428, 0.08399670511528143, 0.4540441844618159, 0.6498703049092305, 0.004533548118650882, 0.07761253032563967, -0.4359927277789325, -0.018676223641238467, -0.227314868769971, 0.03142226884242726, 0.6105781533713536, 0.5134658871860907, -0.28932595469844297, 0.1838244001467969, 0.6067311443122976, -0.4980835180488057], [-0.10930622799846954, 0.21259893870770474, 0.12959916882089512, 1.1916343539319012, -0.26215610806037304, -0.8174780665028466, 0.4674185900677326, -0.009101568995068606, -0.40748514475998704, 0.13080885527405528, -1.2047910813671368, -0.1348294013030132, 0.5604943791463308, 0.24595450598402196, -1.0463439315951655, 0.13244894292967782], [-0.4510489815834722, 0.1541136233418115, 0.1568740371344762, -0.06608460671903595, 0.3991664887100993, 0.14503568801522276, -0.19954022435760996, 0.24336783919328464, 0.03371505275106766, -0.07056341711018924, 0.5119863895175806, -0.06705031320142081, -0.08815382640489619, -0.17023285422399598, 0.08696529359372848, 0.16588986510829748], [-0.019989150352260617, 0.6062213848346202, -0.10923141589036013, 0.18484785732896658, -0.31490123227551503, 0.1448911841875978, 0.010902311073846819, 0.46578793645428296, -0.2063935624039471, 0.030914786738447133, 0.11844488914431552, -0.4457572517654075, -0.1393359179408089, 0.6114431399776448, 0.377094960883616, 0.4530305517004648], [0.46878816381833915, 0.02159137435420772, 0.8185961487117369, -0.38440960438028515, -0.23370131660551952, -0.240813208967508, -0.3737213398460256, 0.2889965096161687, 0.44995101601242826, 0.318049113979542, -0.6415343780631888, -0.26976074571307274, -0.013077278034129745, 0.3475608008524687, 0.05584867446804525, 0.0012078852370500345], [-0.07902713626388694, 0.8457995000010476, 0.281530814565708, -0.17443049195710017, -0.4198790847905286, 0.003012264335487086, 0.49479864289766423, -0.04208423951317656, -0.15355796708678762, -0.01453708055455325, -0.7020808657013791, 0.0659208498468249, 0.18973613608560036, -0.17855079417436037, 0.2314089708663194, 0.3057110012478842], [-0.3488421154316596, 0.6398735669288147, 0.5685890188970343, -0.3277896177659162, -0.6458169608106592, -0.06367379173609361, 0.32171342356073407, 0.10993197243256327, -0.9120641509739533, -0.1412899220225231, 0.47155805710968957, 0.789700618406713, 0.6288313676273513, -0.4573272403682091, -0.7883570407116874, -0.2564082888993068], [0.4494568151804381, -0.414688293033602, -0.3509788261258276, 0.046781977560702445, 0.05223918666727147, -0.3047357151201255, 0.4275636523606159, 0.2959005808690613, 0.06758544614876226, 0.06814097664452799, 0.1035839366888827, -0.8561198371401411, 0.45339893807027526, 0.06904437219444928, 0.15571108835728178, 0.4873816067979121], [1.0408170253958309, -0.2827954258330185, 0.20126211762484114, 0.6250723305884146, -0.579235652377193, -0.022638917015197064, -0.016680198009453168, -0.25923948321799756, -0.10562723367503933, -0.46644160354754566, -0.32439270059382835, -0.0825115738511271, -0.0012634562850598664, -0.11429064109857741, -0.5560811717602882, 0.27057197048960274], [0.16264126292556627, 0.19214488660081447, 0.8294264518888208, 0.011120360084841822, -0.27031843715172593, 0.19246384137147074, 0.09351666169467482, 0.1731158030612534, -0.22596244102257879, -0.23062721634086344, 0.07505914801692024, -0.1295550042800416, -0.011075440838020038, -0.11778909022341302, -0.08327709574059444, -0.05751883238504213], [0.4939617209290674, -0.22271622258296966, -0.003013754186761752, 0.4757131370552634, 0.27425221828251, 0.01222359266204497, -0.15924833998872343, -0.3978500185751831, -0.06468262968055884, 0.045729589811984994, -0.2859827047703862, 0.20985722117308095, 0.1136490112059128, -0.16690361277446747, 0.07566011807462278, -0.23275054433605616]], "biases": [[-1.5493138340788493], [-1.08933945663601], [1.2149660586668156], [-0.5526712144119076], [-0.535185338661336], [-0.9501262790795495], [-0.9380445135140641], [2.192008416607953], [-2.567503580632329], [0.004634016183620929], [0.07424614252139543], [0.2534886958364461], [-0.9062455146247611], [0.16229533856555908], [-0.13928058551823386], [-0.4413497880035136]], "activation_function": "tanh"}, {"neurons": 1, "inputs": 16, "weights": [[0.22022279132018685, 0.6525028323274938, -0.9132039942791748, -0.8140778324740009, 2.5045940357536587, -0.8004696291265987, -2.6789584876818986, 1.6560073139926534, -0.3299273516253239, -0.4383284949268592, -0.2735000967300928, 1.0893706740743974, -0.5326709986403759, -1.1576070405201355, 0.18380073036401456, -0.7215330735408921]], "biases": [[0.6494778575348716]], "activation_function": "sigmoid"}], "accuracy": 93.88619226448452, "MSE": 0.003737864502684906, "epochs": 500}