{"inputs": 2, "outputs": 1, "learning_rate": 0.1, "model_compiled": true, "layers": [{"neurons": 16, "inputs": 2, "weights": [[-0.2961202639964764, 0.2608387054955027], [-0.11661019738483043, 0.36780929963594033], [0.6551303422961925, -0.5345699974514038], [0.8590711662645627, -0.7441758520040798], [0.19633077692270318, 0.11647998373196285], [0.7835601967660326, 1.101236687094061], [-0.08333698035924066, 0.7126861708560213], [0.512237207616033, -0.5144788084735424], [-0.46611705088322064, 0.08486996460489665], [0.18479451481866885, -0.055788796692117386], [-0.12032946764055119, 0.05134357209413664], [-0.8019001120897151, -1.3844502361273838], [0.19657388671696766, 0.0038492648071724507], [-0.04394687852731966, -0.4644585712063058], [-0.9407560980196299, 0.45792121917717404], [-0.0883185485818011, -0.698676606738653]], "biases": [[-0.5731645092254063], [0.3046942370187592], [-0.011959160481170893], [-0.6979795185072664], [-0.5166283259784673], [-1.6391725341889054], [0.5265839607913159], [-0.5497355357590343], [-0.04170422067190644], [0.5545904815544642], [-0.08310827340652109], [0.3367787051589873], [-0.20353158839487973], [0.6672221737901203], [-0.13205703191638762], [-0.042625149926571605]], "activation_function": "tanh"}, {"neurons": 16, "inputs": 16, "weights": [[0.5273377320855201, 0.00360615600947889, 0.7021362373376727, 0.234992692129235, 0.26597474400082677, 0.23768936867179113, -0.4327205935176966, 0.11931065982783337, 0.029230314476045825, -0.02562752933375203, -0.04464218606576152, 0.19720502689008107, 0.10923322455839451, 0.7275622008113454, -0.08997341240607126, 0.3259220909485559], [-0.28771181889535863, -0.5995339902935997, -0.29482744970909935, -0.30045692585785516, -0.13883460829688885, -0.08250261728818309, 0.6294412718574688, -0.7453653861498571, 0.02840483349364006, 0.4780128488283616, -0.007027047476701778, 0.7893754766828391, 0.2689121482476775, -0.06221284816368388, -0.11351641403164969, 1.1463158865343013], [0.13910027917169412, -0.01676971371134143, -0.20595649434749883, 0.23462975221020843, 0.16876947680121437, 0.19590149940088847, -0.21420240440131313, -0.4391971117994601, -0.031143041257669982, 0.5765425313905069, 0.1245083454070713, -0.1447928414724163, -0.019983288783727536, -0.3971114821728475, -1.1480219344522706, -0.21981034353312137], [-0.022281775530380497, 0.6335771530530785, 0.32444249449265344, 0.3242092936087461, 0.2645082858571123, -0.0696040824444672, 0.1597256551571649, 0.5970363850468278, -0.16657630797886935, 0.09094548906359563, -0.6999638067989103, -0.38280689894047615, 0.42906973247265584, -0.1947303545661221, -0.46154932960748524, -0.0018248768798212044], [0.310787211425619, 0.585719814911294, -0.19163856751585073, 0.3828034872426662, 0.05413808474086652, -0.3844046132910005, 0.12215752914143266, -0.35191624238508473, 0.18907577143784127, -0.26302161738552776, -0.3237627956593512, -0.6065102857253495, 0.40665544046539254, -0.14910779429236404, -0.49549618345151325, -0.020165168666378606], [-0.29951671228869015, -0.3262753928239485, 0.2048358212979659, 0.048219749385486205, -0.3956681608385551, -0.14450553659330892, -0.4454263890669131, 0.4490813900547603, -0.745938696559871, -0.413513148960374, 0.9069856612235516, 0.3634259005941911, -0.19504024833598063, -0.33795814811581093, 0.4552860249126978, -0.2338280372557712], [-0.08634226057212176, 0.2179646052655937, 0.16563659671367523, 0.5135675200883636, -0.48161600806139065, -0.7517176055870246, 0.722722647221188, -0.23881520753110988, 0.3383110910559246, -0.5625776097881836, -0.302782995577708, -1.0411621607096053, -0.2770287935671207, -0.6069411856409404, -0.3815428573668402, 0.16010157513538067], [0.3450993205579962, -0.494006956699699, -0.1410222336914155, -0.028287481802231885, 0.09617313934146131, 0.002665457968506616, -0.1358167830102601, -0.3919340243926111, 0.2664281713329331, 0.41524454123641824, -0.5485291211847905, 0.30421948042675495, -0.1788455270121899, 0.5711789522173625, 0.5741553084721982, 0.1096406542467549], [0.15875208848756536, 0.22377263050713606, 0.14662090214976684, -0.48548389905359507, -0.6379070629551103, -0.1404106552109742, -0.4429264598211381, 0.3137174224602429, -0.5391090360580868, 0.7994607012351638, -0.3653773051761819, 0.01570071245657548, 0.2519436728790595, 0.10943027426432755, -0.509677464165789, 0.6616088530970841], [0.027195351137363422, 0.5158950386244034, -0.36588134062587063, -0.05601390885625062, -0.3421897342649862, 0.27349337192542983, -0.030697682475835243, -0.2656955900349268, -0.15724269044081726, 0.3550055607864471, -0.17944801476723088, 0.026863864186511266, 0.36323895814617174, -0.5465822853147465, 0.39503223507727225, -0.06331373316168411], [0.12589955986758558, -0.6131613211014619, 0.7438666578736014, 0.6953339743248512, -0.03011310244958318, -0.27757593648384327, -0.527540398637546, 0.5267349051852173, -0.2789691270756908, 0.786944159567445, 0.24491752404485354, -0.1101570531602785, 0.40349062875333525, 0.06517909291713748, -0.4886953325324063, 0.7987322660114787], [-0.1461443595232267, 0.5552144623827306, 0.11835677937385189, -0.6225774806763499, 0.07492243263893555, 0.45556201354157005, 0.07531882542821916, -0.27627512145631095, -0.7840313988765029, 0.3964436990365624, 0.010498542484854483, 0.045439145005277085, 0.49250410347563583, 0.13139514518436943, -0.35328639539456963, 0.42357558267989237], [0.1327059852303899, -0.3326669250824834, -0.8758133519866089, -0.452138452484636, -0.46021873767857907, -0.37009272364104545, -0.3014760931857274, 0.07411182791915574, 0.7926328600250957, 0.20989915032898107, 0.026579151202383335, -0.6922230046815937, -0.06294301339911257, 0.25593139285929806, 1.0147518465211125, 0.12063558324501682], [-0.08306381656886279, 0.1271476717220881, -0.2433061919208596, 0.3784599662206133, -0.045513684078272415, -0.2072465293382969, -0.3147435320780297, 0.12634694873848434, -0.45821852301593485, -0.101935602250604, 0.07125685251695207, 0.5547621431761892, 0.13551960115267278, 0.6542106900970366, 0.7220706127484049, -0.36623829082773146], [-0.10280191329049723, -0.3251281199017536, -0.044592272811999484, 0.304342669752538, -0.38922220405116625, -0.6719558519597659, 0.07772720695724407, 0.21978013173186337, 0.35985299855273795, 0.016607079719427157, 0.17544842113636366, -0.0541151255397837, -0.4018824929091256, 0.34928741979272815, -0.06343156136660191, 0.3731640391398234], [0.23373969373335016, -0.2784198374492983, 0.5048214454071968, 0.29644385185058836, -0.5884554413176276, -0.2782583227113892, -0.0799157879223562, 0.14292000726873605, -0.371112446778815, -0.34017009714632396, -0.2011339786313377, 0.49230800687376103, 0.45463656319502865, -0.15574658763193597, -0.16177290345839307, 0.31858028363998125]], "biases": [[-0.2656594471710083], [-1.017473325855164], [-0.7210896945123646], [-1.240896170020174], [0.49433715381748483], [-0.5163841179363122], [-0.6636103602784271], [0.416914349132985], [-0.13138398009966837], [-1.0209333089648072], [-0.190979200879107], [-1.2536499889571073], [-0.8064325814763494], [0.7652525822585079], [-0.20589375995457312], [-0.5908281825917343]], "activation_function": "tanh"}, {"neurons": 1, "inputs": 16, "weights": [[1.330792750794911, -3.2182145768572816, -0.42199226737628764, -0.0036518472641448203, 1.2295629839738862, 0.592749529111545, 2.719442048604492, 0.8004788605195634, -0.10897434667846409, 0.6083834781382513, 1.7695538368437842, -1.280060220954266, 2.645944415564119, 0.37740778925345053, 1.3671510233351136, 1.374877478988093]], "biases": [[0.48760911622355757]], "activation_function": "sigmoid"}], "accuracy": 96.27268663753308, "MSE": 0.0013892864902024474, "epochs": 500}