{"inputs": 2, "outputs": 1, "learning_rate": 0.1, "model_compiled": true, "layers": [{"neurons": 16, "inputs": 2, "weights": [[0.16158447616404073, 0.8154591896554229], [0.7773658207764929, -0.6418910752492152], [-0.4845775560552166, 0.40633521239604725], [-0.4163212768686557, 0.5808263973640752], [-0.2749393424155454, 0.04501099734890831], [0.4351069701602669, 0.07761708388650958], [0.09197966260573534, -0.05081551322118378], [-0.2909209128812029, 0.23446821042581925], [0.03964882524038281, -0.5584405043647159], [0.8761343935178111, -1.0131066959961872], [-0.3860478252761637, -0.10345456613376112], [-0.23291238219239319, 0.26322226615480304], [0.3195407200413058, -0.2291430038577735], [-0.619268921350604, -0.6043745187764337], [-0.09394474866039772, -1.2213237350788397], [0.9524199909487105, -0.9395893670201592]], "biases": [[-0.11245749397130196], [0.5330993152989457], [-0.7808649333395978], [0.4924329772199038], [0.9646107150375973], [-0.3459095877483567], [1.4148315056340535], [-2.1389753875847366], [0.4182986510574234], [-0.47105494844308626], [-0.42124737151472724], [0.2766911255377781], [-0.1604976091656429], [-0.290981868148114], [1.0859694418183152], [0.7628283591746707]], "activation_function": "tanh"}, {"neurons": 16, "inputs": 16, "weights": [[0.10148984949134464, -0.040287613581289884, 0.01626311806540034, 0.008371132552496116, -0.042922938464687865, 0.5561665483542334, -0.5119112380895691, 0.5521429468110409, 0.4269292814137263, 0.1526850096319822, 0.1184817763695575, -0.43949675342771904, 0.3471942191174805, -0.9159116997081227, -0.11543454812568245, 0.3748913133282607], [0.12809041175603117, 0.14890188565680124, 0.04955135975320935, 0.5954701752725853, -0.08791195911876927, 0.0049730046858824884, -0.6412011604845088, 0.42823669847175166, -0.010040800955207707, -0.33531151354390504, 0.11581859005721518, 0.31840162682418616, -0.3400048301920585, -0.05531192341325484, 0.3045850886952168, 0.8584109472343595], [-0.437044539073098, -0.2767322525355013, 0.12741787181131914, 0.2864141448268186, 0.0294414808108221, 0.5924573906869407, -0.3785817789264203, -0.11069409382709744, -0.2134178699834867, 0.4451238710505147, -0.2066014254916209, 0.02860647697141303, -0.6036166183189595, 0.46925079702837696, 0.057971582315972506, -0.06833559785744604], [-0.0968660610051193, -0.15877242510221679, -0.4078299446824948, 0.3429290849002096, -0.22007637239430225, -0.10850122797470924, -0.3034726306036775, 0.03822706312696285, 0.1890610273761648, -0.210408319320866, -0.8186887594442402, -0.20076976313864717, -0.03017407667822209, -0.5955473087098874, -0.23666716445952243, 0.25815223388487984], [0.3528098353616329, -0.5647280178659789, 0.5801242542348879, 0.0145069844821962, -0.10494666718078678, -0.41948490656714105, -0.22789992308055418, 0.40003391868555455, -0.19278782436890698, -0.15708434043365008, 0.07300239093589693, 0.185020886526979, -0.6630506910715673, -0.31443979067169886, -0.07385624694222385, -0.8976947599171446], [0.018771695498894736, 0.3786893219887731, -0.04587065474689967, -0.05526670985071318, 0.38405302010479386, 0.35724024929791137, 0.22547345519960227, 0.5481351788637296, -0.00808973132713104, -0.12662533175251267, -0.676851805257387, 0.5774062118585869, -0.20121443829810895, 0.18911108075346386, -0.48272614736133834, 0.35521880851042903], [0.34819611079684465, 0.09431083894254651, -0.2315058197458326, 0.7246744075141677, -0.011483161074852716, -0.04393914989927018, 0.5875815293756272, 0.4897515073655285, -0.08749671578108645, -0.5462662836681149, 0.17352945090909494, 0.036688729869444665, -0.3695596966254052, 0.5040706367399065, -0.09622759143492313, -0.48163812448510673], [-0.005844411775915954, 0.4855711447101882, -0.17552683745021191, -0.4191414830716003, 0.3407298976046964, 0.49917621126272793, -0.33740863777349844, -0.07945572869807722, 0.4206488554181137, 0.3479924882955348, -0.252789660993557, 0.011958305177585444, 0.09248328068333181, -0.38725845680575965, 0.20672629563157116, -0.4268729365585749], [0.04469035634266253, 0.02966638905679099, 0.036518787451219115, -0.12465595281476831, -0.5749883481992675, 0.16946614701711982, 0.342804988039327, -0.038671072443860394, -0.022569669752207148, 0.13312714847734994, -0.05793598760085899, -0.2746081301610748, -0.2075453986899723, -0.45090792093653936, 0.23231145633028175, -0.7328823625773873], [-0.13572679103072857, 0.08843668832193499, -0.027815307206063827, 0.18791369867235144, 0.3795447747378024, -0.29222839363536945, -0.5243139446639574, 0.4015668097748078, 0.384217509962669, 0.4697271440816316, 0.25978774264972776, -0.9713051710724109, 0.32969976970839976, 0.15432691656423417, -0.1113860023624502, -0.818979654528511], [0.03162653995818802, -0.39286244605849063, -0.11110005685808315, 0.1311802384407425, 0.539444466016178, -0.401410735024542, -0.3304234262343095, -0.050785449330684344, 0.11229538143307131, 0.07734577906768228, 0.19360677574870477, -0.07890329807661682, 0.13299481020499135, -0.08395439045961013, -0.18034293754765254, -0.17141068146203178], [-0.1791555292408016, -0.5425321114105084, -0.23503697084406228, 0.11856884269065268, 0.21421376002524997, 0.7239303035588165, 0.09386478501928924, -0.1688593802492887, 0.7195782767666686, 0.4803958838440309, 0.06452394295309773, -0.02853721311762952, -0.17819950964963993, 0.07074576712446456, 0.548769905909039, 0.08648874525244642], [-0.008613082663457975, -0.04162425649979974, -0.10263091254036662, -0.05389061886092849, 0.07073308141386905, 0.1437923667587106, -0.0023781824523601424, 0.5316042362406049, -0.2612158782213762, 0.6014670193064957, -0.37321897389533615, -0.03128044262723299, -0.568728035815193, 0.21675140341538426, -0.4185557490063745, -0.03125986577466056], [-0.027325853486024086, 0.5487741239070685, -0.09263698270718648, 0.8425616553500341, -0.02277053069903257, 0.44529742248417986, -0.2846976018740726, 0.45684588811966104, -0.26459451233424675, 0.1705248742028484, -0.46920440523965457, 0.1025445673231739, -0.33013449203124723, -0.3384106488203877, 0.13752527586847954, 0.2855500063173087], [-0.013698795033956997, 0.43146219522509877, -0.13891966324293725, -0.32538248264465724, -0.00440136554298568, -0.5541453059891216, -0.08532590947494642, 0.29944287004376663, 0.08864183169577228, 1.4686232107456239, -0.37566837448467666, -0.2603899705399932, 0.48948710102923554, -0.18616642709156728, 0.3290046716567249, 0.29292852460204566], [-0.37393216394987666, 0.496224346340296, -0.06220298293354781, 0.08322850621121686, 0.20522218788565566, -0.13442484938352198, -0.5094510091862671, 0.41912187742111684, 0.13399750026616947, -0.4564214709745562, -0.1303274256928279, -0.19906329204645057, 0.5979594055688809, 1.0391580502570121, -0.055047954626277415, 0.055234447762834565]], "biases": [[-0.9126733385318624], [-0.04698393826428278], [-0.8432455006564028], [1.0447657541108364], [0.34653957159166565], [-0.7241233791697127], [0.6466161911896592], [-0.8496604356590114], [1.5227720456724336], [0.6904502404944945], [-1.8617086707421122], [-0.9402131649136258], [1.7913114668298618], [-0.6566027323396759], [-0.80245782243084], [0.8160162684184445]], "activation_function": "tanh"}, {"neurons": 1, "inputs": 16, "weights": [[-0.6754657483196566, -0.8078910495372524, -0.8700279632400583, -0.28582926553206855, 3.4705724493923285, -1.4408971739971685, -0.7333250754459204, 0.9208725744614714, 0.4561945369649964, -0.9489155259465395, -0.18996902669500643, 0.7508014761536789, 1.2391050926612555, -0.17817715569998804, 2.4179879445801276, -1.4733449537893741]], "biases": [[0.2784294468856161]], "activation_function": "sigmoid"}], "accuracy": 93.91704217716449, "MSE": 0.0037002375874395687, "epochs": 500}