{"inputs": 2, "outputs": 1, "learning_rate": 0.5, "model_compiled": true, "layers": [{"neurons": 4, "inputs": 2, "weights": [[-1.6180583704353975, -1.6529122411036858], [1.2323056252771192, 1.4810637072627384], [-0.6570133653264619, 0.19805638629580982], [1.1576822686542774, 0.14716461625930857]], "biases": [[0.7970822874643156], [-1.9696802472613275], [-1.9967457654238168], [-0.45904647778734153]], "activation_function": "tanh"}, {"neurons": 16, "inputs": 4, "weights": [[-0.49535762076583384, -0.48796619358250626, -0.31721551056145886, 0.14936699267467618], [0.01698528269226588, -0.487466256624135, -0.25218796394422627, 0.6640618361831206], [-0.04911629864032992, 0.4219803915595335, 0.43963766734695275, -0.3666349663651374], [-0.12189833561143683, -0.3023217582655254, 0.622428795420486, -0.17755913359995912], [-0.6940963650901746, 0.6417067657465952, 0.3411218493173366, 0.20220357615835635], [-0.21501545412582226, -0.3453137516527431, 0.37098508199203223, -0.4583678037223061], [-0.3972212654483599, -0.19196848765358795, -0.7511159371474918, 0.3959891894378981], [-1.4442593390070138, -0.3454538473347054, 0.8871409318199238, 0.16028197187164644], [0.045374477975318905, -0.784317699619077, -0.2687968918117939, -0.14828308038262822], [-0.7229377993051063, 2.170221691684075, -0.42471967725181714, 0.7582319187492356], [-0.4141876734038145, -0.7796981990618581, -0.11357235514449134, -0.3974365392108188], [1.9364225109898865, 0.3119043617202968, -0.3911019666197183, -0.13076284272600025], [-0.03148894910690827, 0.02881335947590265, -0.1428063554568551, -0.30338774595317586], [0.5448974376118866, -0.25616853568666603, 0.9337661350999583, 0.41947174886693495], [0.033546247206099895, 0.24403414009791347, -0.06825712548278967, -0.23391456105036798], [-0.7331759683985363, -0.9719839535362297, 0.5637008496859943, -0.21866772411171323]], "biases": [[-0.6310848601536182], [0.5860616307675649], [0.4704237927790673], [0.9505879474446784], [-0.38426899527260866], [2.300672432585724], [1.397433823839923], [0.7823517765874822], [-0.04521245925004804], [-1.470801592803211], [-1.6397523151783515], [-0.29726705768517386], [-1.754900364832693], [-1.3178170798895885], [0.5500604562321948], [-1.379458294957466]], "activation_function": "tanh"}, {"neurons": 1, "inputs": 16, "weights": [[0.5954492725035999, -0.0565438451765612, -0.30914136393952996, -0.07760183346972754, -0.8347032187665135, 0.8231243130741341, -0.9315367490224579, 1.9309286980614548, 0.9544511731870786, -3.1793844423642614, 1.258480366042945, -3.5245190354963785, 1.2531459069811384, -1.1280422671352015, 0.18300429158934742, 2.414542249321662]], "biases": [[-1.6439235913025867]], "activation_function": "sigmoid"}], "accuracy": 98.59655167369125, "MSE": 0.00019696672046188527, "epochs": 1000}