{"inputs": 2, "outputs": 1, "learning_rate": 0.1, "model_compiled": true, "layers": [{"neurons": 16, "inputs": 2, "weights": [[0.18923533417815425, 0.7763917380229067], [1.2812479723803145, 1.1618489654146904], [0.06962310877249703, -0.0611245144668239], [0.2923500447070685, -0.4722065390339876], [0.5417312366581734, -0.6040702432101765], [-0.700168428487162, -0.3024197878135822], [0.31915321831889765, 0.4692390761560698], [-0.47270997718035696, 0.0036433923146902544], [-0.6489562680211683, -0.34951920421309285], [-0.3845826088296401, -0.2537301058637665], [0.2693653055626806, 0.823366119078775], [-0.019227376981058253, -0.30911053385384907], [1.2602759427312882, -0.9701073613225056], [0.7047787071059991, -0.17418417964708832], [0.27490999409352795, -0.18915022230567413], [-0.8524200964260408, -1.187331466058958]], "biases": [[-0.5461050936845742], [-0.37561176655827694], [1.0180508230244423], [-0.4308594499381524], [-1.0643898157525997], [1.1563263342592773], [-2.464352043780415], [-0.3404987172987938], [-0.18579796699763157], [0.5542312956010571], [-0.44494679885701727], [0.9326737617245646], [0.6178706759575662], [0.488438446560889], [-0.28843698806844553], [1.5017038303348285]], "activation_function": "tanh", "loss_function": "mse"}, {"neurons": 16, "inputs": 16, "weights": [[-0.5567350960847219, 0.5819427344452605, -0.1676274291875444, 0.3219193067412306, -0.0007787046957280692, -0.4753654795615124, -0.07025124564569452, -0.11787512183362998, -0.023777341981345738, 0.0751836006477605, 0.018949108678870223, 0.1839829555651363, -0.7263452358090594, 0.21765098719953604, 0.03509442856485463, 0.4794602148945725], [-0.35594894471937066, -0.2856076963636207, -0.579840313307235, 0.42653008815154725, -0.02066272929576641, 0.4212078671685208, 0.2219413577044855, 0.37361341672056586, 0.4181872763897254, 0.30136356047730595, -0.6855186973314907, 0.4608917091685128, -0.46992788532999163, -0.11320146816048424, -0.29849530211352604, 1.2952575982080947], [0.029872895448462788, -0.6919900306780231, 0.41904454917081907, -0.3159662860861435, 0.6277924117833588, -0.3590459965478009, 0.06896203021314158, 0.03722655561731965, -0.4692301067360695, -0.10765684054752847, -0.09640635529619122, -0.08887373572111897, 0.7215438746592464, 0.7817387510304287, -0.048860867499004416, 0.13177029269518756], [0.20508778721276855, 1.4003029238874034, -0.7101895228180617, 0.20900999162767683, 0.8694868810118794, -0.17482460641607112, -0.3570849738623418, -0.20848847024188927, -0.26586494627595, 0.166277140509488, 0.8457313121004458, 0.270093039992989, -0.3081329294041443, 0.3867565885902145, 0.07122181937224696, -0.10941522986735973], [0.022299856002008782, -0.8540932561476761, -0.136211315511907, 0.4405889059451993, -0.06364574879082037, -0.06812387175711612, 0.3876139646633961, 0.465579930842803, 0.3311819927906651, -0.23150405677704838, 0.42395569507029873, -0.5542112176935117, 0.33739876194442975, 0.15989555244989617, -0.06495742855349831, 1.2167316275925713], [0.17915177606929106, -1.2838107875131797, -0.5209934079674664, -0.7235482811384378, -0.03492101330908431, 0.27756334798503335, 0.339978856838047, 0.6365253126090377, 0.15200716510302165, 0.08648983695151909, 0.06622973192691342, 0.31803867047912704, 0.8324098829520312, 0.39810857734301536, -0.409905557002732, -0.775096493148182], [0.1974606408912327, -0.3815188476926663, 0.045616206903075884, 0.23435611017901486, -0.252711875295228, -0.5949185769729224, -0.17597863900598293, -0.254561645902667, 0.5491980322005616, 0.5896335267983305, 0.12074235035444289, -0.06067170894157637, 0.5405052416687982, -0.0620559696574321, -0.07167746620584126, -0.5718267550222871], [-0.6114456175118537, 0.041057097121903266, -0.31769470137728684, 0.1198025254465494, 0.1650003880769648, 0.07894839447046396, -0.1915481096289463, -0.8347443359627491, -0.020193280925909395, 0.08486372544626734, -0.5016281105498379, 0.0724624941481856, 0.4608172095354786, 0.5211116840417933, 0.26745489125812316, -0.07065090785941822], [0.19421271900642578, 0.12098643024661819, 0.3529444324922096, 0.03984901310389876, -0.27934226784306965, 0.03979467396194018, -0.29040559690999107, -0.3290487803184801, -0.10816904185065065, 0.15384508519868953, -0.6238848558283497, 0.2992439919302641, -0.18367125577160093, -0.5030187183949927, -0.4912689767026772, 0.14659427316886603], [-0.07997393095505637, 0.292176113082956, -0.6529453379874103, 0.11312022031959935, -0.03796830119245906, 0.23618279191471478, 0.10443090843284812, -0.8494765127823165, -1.191389035640549, 0.6840369199014888, 0.22849788473161994, 0.2527915021481839, 0.3096581513859704, -0.20664690164038083, 0.05236988588127467, -0.04323913543930424], [0.11527860136392899, -0.07552837059581181, -0.37326338692336514, 0.2659079637665538, -0.6371672404971086, -0.12207434979705198, 0.43230031389950074, 0.3104689726834441, 0.10848763581793909, -0.03918994445291385, 0.13492691702458673, -0.47086335484938313, -0.0019537071067045986, -0.056829841919593824, 0.21118607176211598, -0.2589222718040707], [0.6069009287017874, -0.08644817230025266, 0.25457384540411987, -0.09096827792146174, -0.17972562279025345, -0.31304861639235354, 0.7500034313896508, -0.03643322415892827, 0.13803393322720886, -0.7473435159240297, 0.720454584461942, 0.18939796379238769, 0.37542028340534844, 0.44248867163338884, -0.30218120933518716, -0.19643373717886375], [0.116501080599767, 0.08928405958527548, 0.4933458268798199, 0.2841893261733232, -0.5361976016069552, 0.21199423103187576, -0.09022131516016527, -0.4955316185331566, -0.019513156572102876, -0.5231572451571708, 0.48742992502416416, 0.2816859166715672, 0.02252175751759833, 0.6705059258303422, 0.30366446592116286, -0.7816580153083507], [0.4622543761356203, 0.4269248915349408, 0.24641248733703322, -0.13620046557021553, 0.5487201657504657, 0.504381892690005, 0.3305279840381211, 0.19054584800926594, 0.4291184574152797, 0.4496791054467031, -0.3946264547320618, 0.276558897857798, -0.3576636079106177, -0.16513025132413123, 0.18373051291108308, -0.0591754261799316], [-0.018357763922244245, 0.14344478799951543, -0.22325575933722205, -0.177554382465924, 0.6796571947738121, -0.33199571764896824, 0.03371232833362386, -0.11510331212512369, -0.5878723210293897, 0.3191520084169563, 0.3475802567865136, 0.2390667955490754, -0.09638768146037847, 0.7441452118084193, 0.19524242634318528, -0.7738716467038556], [0.38691855838635647, -0.11302848830554368, 0.3451944846367793, 0.05444477595250475, 0.4291293290817091, -0.1613287964667455, 0.03230595875878141, -0.03175822172330965, -0.14561051769145456, -0.7049760624488344, -0.18870703342916179, 0.2938153395483295, -0.1510298284190548, -0.1072527637318204, 0.4124571456758123, 0.4869143342695545]], "biases": [[0.025450343884867905], [1.8571642232926047], [0.20901011908217254], [0.7368743821062881], [2.599592591156634], [0.551105143206575], [2.3982671201698635], [-1.4634415497829087], [-1.1713473321711423], [0.48497822273131946], [-0.9472406495747078], [-0.4877000778515117], [1.0452710936105796], [0.21067136429900768], [0.7958205770824887], [0.4116146476249728]], "activation_function": "tanh", "loss_function": "mse"}, {"neurons": 1, "inputs": 16, "weights": [[0.7627816186707377, 3.088627288571306, -0.9422005155334523, 3.4056042858509024, 0.26527377312929085, -1.813442210931993, -3.361770949080198, 0.7186313993125437, -0.028656846193122858, 0.8023307723745157, 1.0201739369970453, -0.9068664311671429, -1.4356500193591908, 0.7750250809947682, 0.5660952692103358, 0.664893476629121]], "biases": [[1.5161535810025863]], "activation_function": "sigmoid", "loss_function": "mse"}], "accuracy": 98.65232415396139, "MSE": 0.00018162301859958867, "epochs": 500}